\data\
ngram 1=8
ngram 2=10
ngram 3=9

\1-grams:
-99.0000000	<s>	-0.8573325
-0.6989700	a	-0.7481880
-1.0000000	b	-0.8573325
-1.0000000	c	-0.8061800
-0.6989700	d	-1.1583625
-1.0000000	e	-0.7481880
-0.6989700	</s>
-1.0000000	f	-0.8061800

\2-grams:
-0.2041200	<s> a	-0.9542425
-0.5351132	<s> d	0.3010300
-0.3590219	a b	-0.3010300
-0.3590219	a </s>
-0.0579919	b c	-0.3010300
-0.0579919	c d	0.0000000
-0.0280287	d e	-0.1760913
-0.3590219	e </s>
-0.3590219	e f	-0.3010300
-0.0579919	f a	-0.9542425

\3-grams:
-0.0280287	<s> a b
-0.0280287	a b c
-0.0280287	b c d
-0.0280287	c d e
-0.5351132	d e </s>
-0.2041200	d e f
-0.0579919	<s> d e
-0.0280287	e f a
-0.0280287	f a </s>

\end\
